encog,BasicNetwork,java,3.4.0,1,1507713683626
[BASIC]
[BASIC:PARAMS]
[BASIC:NETWORK]
beginTraining=0
connectionLimit=0
contextTargetOffset=0,0,0
contextTargetSize=0,0,0
endTraining=2
hasContext=f
inputCount=7
layerCounts=3,8,7
layerFeedCounts=3,7,7
layerContextCount=0,0,0
layerIndex=0,3,11
output=0,0,0,0,0,0,0,0,0,0,1,0,0,0,0,0,0,0
outputCount=3
weightIndex=0,24,73
weights=-1.5938424992,-0.0596839365,1.3299807519,3.4837119182,3.2279475341,-3.9193898236,2.5350594711,-0.9112804769,-2.9441272689,-1.6905351775,4.5323749308,-2.0065038457,1.2093660875,-0.219699019,3.1090107062,1.0872684377,-2.7870830999,1.5862067922,2.3177636409,-0.3710960887,-0.4911612947,4.7302401504,-0.868986203,-0.5566493367,-0.7021845917,-0.1251345184,1.1204298861,3.6529593566,2.1551080154,0.5087287,-2.8543670318,-0.5281941101,1.3591896022,2.0883712882,-0.178084248,-1.3722604536,-0.5460034208,-0.732457376,0.8153368486,-0.402335316,-1.2071803082,-3.3037010197,-1.7464518263,-0.9297181078,3.5785732689,-0.9634006525,2.6130489428,-0.5626389346,0.3009436648,0.2271135239,-3.4282249036,-0.8388013829,-2.4333932764,0.6445469348,-1.4455879599,-0.7096896447,2.7382743685,-1.0770983031,-0.0449179489,0.0683954346,-3.8493679237,0.7994488747,-2.5811097481,-3.9695626046,2.2166142837,1.3545970568,-1.2057270536,-1.9956303855,-3.3411360946,-0.3393843071,1.2744786225,0.7426702209,-0.5062303817
biasActivation=0,1,0
[BASIC:ACTIVATION]
"org.encog.engine.network.activation.ActivationSigmoid"
"org.encog.engine.network.activation.ActivationSigmoid"
"org.encog.engine.network.activation.ActivationLinear"
