encog,BasicNetwork,java,3.4.0,1,1507713885089
[BASIC]
[BASIC:PARAMS]
[BASIC:NETWORK]
beginTraining=0
connectionLimit=0
contextTargetOffset=0,0,0
contextTargetSize=0,0,0
endTraining=2
hasContext=f
inputCount=7
layerCounts=3,13,7
layerFeedCounts=3,12,7
layerContextCount=0,0,0
layerIndex=0,3,16
output=0,0,0,0,0,0,0,0,0,0,0,0,0,0,0,1,0,0,0,0,0,0,0
outputCount=3
weightIndex=0,39,123
weights=3.1999340979,-0.0063421554,-2.6401959061,0.5330936134,-0.5313389363,0.2936238924,0.4935785174,1.0791130723,-1.2106404503,-1.6797414647,1.5032438136,-0.5209195449,-0.5156816938,1.7478614421,-1.00593489,-1.4501873768,-0.7535870944,-3.0631721455,1.5720218977,-2.8720459058,0.2233764874,1.0915879786,2.1024196669,1.4652177817,-0.2089966184,0.1263875477,-1.0361718293,-1.9110456453,1.3777172853,0.8976461839,-0.6297953223,1.6317636234,0.4022217084,-1.813941771,-0.2621930399,2.1886649078,-1.2736733469,-1.0993012757,1.4047542463,-0.4497558451,1.9476040313,-1.0892570367,0.6633457164,3.3117383634,-1.5266500538,1.2580980219,-0.9936551919,0.2238404059,-0.6343008135,1.0549288996,1.2255727634,0.3993394574,-1.45144792,-0.1587783816,-1.3228156712,0.467458569,-1.2129719024,-2.9351597488,1.3219524271,-0.5772130044,-0.5861585943,0.4315453543,0.7790553987,0.7812963516,-0.544359146,-0.7348167173,-0.0126897013,-1.3614169963,1.0305601669,1.0497136553,1.1881453414,-0.4449583835,-0.1956924426,-2.9083682123,0.1339330167,-0.3663403595,-0.3453792433,-0.029708226,-0.5670851447,0.9442509292,2.3019766061,-0.397942725,1.449992546,1.0832812953,0.4300119464,-0.2642270868,-1.453623111,-2.1040859869,0.4538153841,0.6365106485,-1.5903870434,1.3279623266,1.3728362969,-0.5187995569,-1.2168516011,-0.0479080823,-1.2336176056,-1.1001676935,-0.2914173641,-0.1965976723,1.4204967616,-0.2513781782,1.3526032952,-1.0995974164,-0.3136948776,-1.0310429394,-1.2877885866,1.1009458098,2.1596676213,-0.9102277458,1.4771672892,-1.7187439686,0.1268242885,1.9735633758,0.0785055281,1.2783783109,0.0139572197,-0.592657305,-0.5274103301,-0.1058670916,0.8019810084,-0.2907027825,-0.9781983863
biasActivation=0,1,0
[BASIC:ACTIVATION]
"org.encog.engine.network.activation.ActivationSigmoid"
"org.encog.engine.network.activation.ActivationSigmoid"
"org.encog.engine.network.activation.ActivationLinear"
